{"Layers": [17, 5, 5, 5, 1], "g4": "sigmoid", "g3": "ReLU", "w1": [[-0.8280669892723886, -0.022222239723151793, -0.18399587594452926, -0.7514086599132441, -2.0577353387241746, -0.7146542699522846, -1.7103264206462014, -0.8071597126411828, -1.9190935659885326, -0.4278978322505302, -1.5027630537656054, -0.3662214719290991, -0.5464957876930571, -0.19231845269508144, -0.8857741647511197, -0.14069619056725113, -0.4484345507782178], [-1.243025162402473, 0.06368223658811248, -0.02816011870100173, 0.41328969429511286, 0.5605918104325549, 0.3645840486792665, 0.356191734608261, 0.550099655289268, 0.49319157788175066, 0.26173331370258507, 0.46119333283383307, -1.847374030821017, -1.022760014681316, 0.09227949522147458, 0.2451583584506323, 0.0947142625322421, -0.01175558326496929], [-1.8679164911813522, -0.016849790877532564, 0.054996983103804103, 0.728793330475113, 0.7122473393253703, 0.6429147679188933, 0.5984232404370328, 0.7029460501761106, 0.7240532536948299, 0.48342552784993065, 0.41447127558217733, 0.41957084808315737, 2.107959545786975, 0.1091591271637549, 0.2764072339738432, 0.11576212949869116, -0.09283502631462416], [-1.3089695500380598, 0.12265609727893252, 0.10090631942102984, 0.08818113973804552, 0.30267954415540593, 0.29089447357073134, 0.3472882946086378, 0.3775293764212845, 0.14722597067972093, 0.08023028794385761, 0.06537273610359169, 2.0453684741733746, -1.5991198448814914, 0.18226918344759543, 0.07131816990969808, 0.09974522397581373, 0.06174394192442112], [-0.7989995402623977, 0.02050655443659, 0.1259985449430544, 0.10411664332052675, -0.3135567630334755, -0.1560741470446034, -0.3127092432195868, -0.02814894631647129, -0.2320194770288396, -0.014099743475820372, 0.023179269257313163, -0.4162982400494019, 0.7913212225686883, 0.017901120483783926, -0.34104906046798467, 0.10815954364407677, 1.5704760886806912]], "g1": "ReLU", "g0": "ReLU", "w0": [[0.10998378436645478], [-0.11815766055450883], [0.18591894217095142], [0.06956754002880866], [0.11227676958027544], [-0.04171827849523929], [-0.11763707004652042], [-0.008261905102250113], [-0.12940139019757488], [-0.05051373462438178], [0.1054404459725053], [0.14575017463125325], [-0.10257473473525057], [-0.043539069467643084], [0.03865950677845062], [-0.05749468625599469], [0.0029137636726028248]], "dg2": "dReLU", "dg3": "dReLU", "dg0": "dReLU", "w4": [[-2.630091610358179, 0.9318579327554739, -1.4625052322440215, -1.5363283413151712, 0.93740640158803]], "w3": [[-2.818511175726449, -1.1140282851756862, 0.641113798557558, 1.0186329420689983, -0.19529850104209057], [0.11019523374115757, -0.831508836606526, -0.06179627718161326, 0.3509354491211613, -0.3114884298589938], [0.2980498678150055, 1.52772601239595, -1.7160948638312026, 0.11742155195938181, -0.6282545297087857], [-1.3858962609714602, -0.6016211239678267, 0.18448082942979463, 1.4920913528708892, -1.7736878816716932], [0.4167627599248981, -0.33206567832958733, 0.1131507586875391, 0.8811662018557374, 1.0175009650039097]], "b1": [[1.098391514649399], [0.8756358778832334], [1.8631214956155107], [1.3260371819026127], [-0.27807532097051135]], "b2": [[-3.6049594872096735], [0.4686665392195367], [1.4593624575541364], [-0.36915344496011], [-4.312327306398414]], "b3": [[0.32612673366262285], [-0.04523289156924688], [1.4147420179241947], [0.8089156215537194], [0.18493905729322582]], "alpha": 0.03, "g2": "ReLU", "b4": [[3.386965484647932]], "dg1": "dReLU", "dg4": "dSigmoid", "b0": [[0.0], [0.0], [0.0], [0.0], [0.0], [0.0], [0.0], [0.0], [0.0], [0.0], [0.0], [0.0], [0.0], [0.0], [0.0], [0.0], [0.0]], "nLayer": 5, "reg": 0.0, "w2": [[0.15095903275223252, 0.39298123338285157, 1.2812793643027023, 0.9394540980843071, 0.6537654553030147], [1.6229480958753464, -0.294390185920853, 0.6738690741184855, 0.46867457889184977, -0.32416087293811313], [0.6768227848370947, -0.5377087793580764, 0.05482959135511968, -0.6039269903829014, -1.4316092792331605], [1.3485010548746397, 0.6989093768585797, 1.187225325226738, 1.0132331034447457, 0.3667871384232552], [1.5013051567211544, 1.481811120384974, 1.2996453212643668, 1.4178571759326617, 0.502769095759763]]}